<?xml version="1.0"?>
<opencv_storage>
<stage4>
  <maxWeakCount>5</maxWeakCount>
  <stageThreshold>-1.3897174596786499e+00</stageThreshold>
  <weakClassifiers>
    <_>
      <internalNodes>
        0 -1 95916 1.1788685619831085e-01</internalNodes>
      <leafValues>
        -7.9931974411010742e-01 3.3018869161605835e-01</leafValues></_>
    <_>
      <internalNodes>
        0 -1 61114 -1.1301829665899277e-01</internalNodes>
      <leafValues>
        4.8872768878936768e-01 -5.1341474056243896e-01</leafValues></_>
    <_>
      <internalNodes>
        0 -1 99798 1.5440857410430908e-01</internalNodes>
      <leafValues>
        -4.7896993160247803e-01 4.1870579123497009e-01</leafValues></_>
    <_>
      <internalNodes>
        0 -1 38 -5.9195201843976974e-02</internalNodes>
      <leafValues>
        1.7996515333652496e-01 -1.</leafValues></_>
    <_>
      <internalNodes>
        0 -1 161470 -3.7837944924831390e-02</internalNodes>
      <leafValues>
        -9.4234615564346313e-01 2.2202183306217194e-01</leafValues></_></weakClassifiers></stage4>
</opencv_storage>
