<?xml version="1.0"?>
<opencv_storage>
<stage1>
  <maxWeakCount>5</maxWeakCount>
  <stageThreshold>-1.6549481153488159e+00</stageThreshold>
  <weakClassifiers>
    <_>
      <internalNodes>
        0 -1 86164 1.6058033704757690e-01</internalNodes>
      <leafValues>
        -8.3061891794204712e-01 5.9139782190322876e-01</leafValues></_>
    <_>
      <internalNodes>
        0 -1 18369 -9.2651262879371643e-02</internalNodes>
      <leafValues>
        5.3106552362442017e-01 -7.0121031999588013e-01</leafValues></_>
    <_>
      <internalNodes>
        0 -1 3030 -3.9407495409250259e-02</internalNodes>
      <leafValues>
        4.7081848978996277e-01 -5.7909345626831055e-01</leafValues></_>
    <_>
      <internalNodes>
        0 -1 90360 -1.2165959924459457e-02</internalNodes>
      <leafValues>
        -8.3670026063919067e-01 2.9646152257919312e-01</leafValues></_>
    <_>
      <internalNodes>
        0 -1 158665 -3.1627377029508352e-04</internalNodes>
      <leafValues>
        -8.9354640245437622e-01 2.4276287853717804e-01</leafValues></_></weakClassifiers></stage1>
</opencv_storage>
