<?xml version="1.0"?>
<opencv_storage>
<stage7>
  <maxWeakCount>8</maxWeakCount>
  <stageThreshold>-1.4543883800506592e+00</stageThreshold>
  <weakClassifiers>
    <_>
      <internalNodes>
        0 -1 61112 -8.7918847799301147e-02</internalNodes>
      <leafValues>
        1.5879827737808228e-01 -7.7072310447692871e-01</leafValues></_>
    <_>
      <internalNodes>
        0 -1 9435 9.3068331480026245e-02</internalNodes>
      <leafValues>
        -7.3588603734970093e-01 2.3905944824218750e-01</leafValues></_>
    <_>
      <internalNodes>
        0 -1 116622 -3.6289352923631668e-02</internalNodes>
      <leafValues>
        8.5163694620132446e-01 -2.4160474538803101e-01</leafValues></_>
    <_>
      <internalNodes>
        0 -1 110911 -7.2057425975799561e-02</internalNodes>
      <leafValues>
        4.2543432116508484e-01 -3.6335918307304382e-01</leafValues></_>
    <_>
      <internalNodes>
        0 -1 121237 -2.8014226700179279e-04</internalNodes>
      <leafValues>
        -7.8920632600784302e-01 2.0516920089721680e-01</leafValues></_>
    <_>
      <internalNodes>
        0 -1 13772 -2.0030835643410683e-02</internalNodes>
      <leafValues>
        1.8228055536746979e-01 -7.3265725374221802e-01</leafValues></_>
    <_>
      <internalNodes>
        0 -1 121237 6.0726556694135070e-04</internalNodes>
      <leafValues>
        1.5537677705287933e-01 -8.4956264495849609e-01</leafValues></_>
    <_>
      <internalNodes>
        0 -1 151862 3.1755314557813108e-04</internalNodes>
      <leafValues>
        1.1435817182064056e-01 -7.9205954074859619e-01</leafValues></_></weakClassifiers></stage7>
</opencv_storage>
