<?xml version="1.0"?>
<opencv_storage>
<stage9>
  <maxWeakCount>8</maxWeakCount>
  <stageThreshold>-1.4328896999359131e+00</stageThreshold>
  <weakClassifiers>
    <_>
      <internalNodes>
        0 -1 9108 -1.4024627208709717e-01</internalNodes>
      <leafValues>
        7.8787878155708313e-02 -7.3413175344467163e-01</leafValues></_>
    <_>
      <internalNodes>
        0 -1 161320 -7.8233424574136734e-03</internalNodes>
      <leafValues>
        -8.3281987905502319e-01 4.6936687082052231e-02</leafValues></_>
    <_>
      <internalNodes>
        0 -1 37870 4.3945420533418655e-02</internalNodes>
      <leafValues>
        8.4607027471065521e-02 -9.1843068599700928e-01</leafValues></_>
    <_>
      <internalNodes>
        0 -1 116405 1.2155549228191376e-01</internalNodes>
      <leafValues>
        -4.4125604629516602e-01 2.9922783374786377e-01</leafValues></_>
    <_>
      <internalNodes>
        0 -1 159107 4.1591975605115294e-04</internalNodes>
      <leafValues>
        5.6258261203765869e-02 -9.2102479934692383e-01</leafValues></_>
    <_>
      <internalNodes>
        0 -1 118920 -2.2267562150955200e-01</internalNodes>
      <leafValues>
        8.1072039902210236e-02 -1.</leafValues></_>
    <_>
      <internalNodes>
        0 -1 20371 -2.5381958112120628e-03</internalNodes>
      <leafValues>
        2.3380574584007263e-01 -4.0922698378562927e-01</leafValues></_>
    <_>
      <internalNodes>
        0 -1 25744 -7.5572412461042404e-03</internalNodes>
      <leafValues>
        -7.0047295093536377e-01 1.4540484547615051e-01</leafValues></_></weakClassifiers></stage9>
</opencv_storage>
