<?xml version="1.0"?>
<opencv_storage>
<stage3>
  <maxWeakCount>8</maxWeakCount>
  <stageThreshold>-1.9200048446655273e+00</stageThreshold>
  <weakClassifiers>
    <_>
      <internalNodes>
        0 -1 81338 -1.1472183465957642e-01</internalNodes>
      <leafValues>
        1.6363635659217834e-01 -8.1538462638854980e-01</leafValues></_>
    <_>
      <internalNodes>
        0 -1 102033 1.2152965366840363e-01</internalNodes>
      <leafValues>
        -6.2369960546493530e-01 3.4236291050910950e-01</leafValues></_>
    <_>
      <internalNodes>
        0 -1 3607 -9.5565654337406158e-02</internalNodes>
      <leafValues>
        3.5758212208747864e-01 -6.9616997241973877e-01</leafValues></_>
    <_>
      <internalNodes>
        0 -1 9435 9.2947162687778473e-02</internalNodes>
      <leafValues>
        -6.4056181907653809e-01 3.5479843616485596e-01</leafValues></_>
    <_>
      <internalNodes>
        0 -1 954 -1.9372168928384781e-02</internalNodes>
      <leafValues>
        2.6131096482276917e-01 -6.2888473272323608e-01</leafValues></_>
    <_>
      <internalNodes>
        0 -1 121732 -6.1459001153707504e-03</internalNodes>
      <leafValues>
        -8.4023487567901611e-01 2.6869449019432068e-01</leafValues></_>
    <_>
      <internalNodes>
        0 -1 12848 -1.2406922876834869e-01</internalNodes>
      <leafValues>
        1.3997688889503479e-01 -8.8998806476593018e-01</leafValues></_>
    <_>
      <internalNodes>
        0 -1 161210 -1.2571187317371368e-01</internalNodes>
      <leafValues>
        -9.0354281663894653e-01 1.8582876026630402e-01</leafValues></_></weakClassifiers></stage3>
</opencv_storage>
